digraph Tree {
node [shape=box, style="filled, rounded", color="black", fontname=helvetica] ;
edge [fontname=helvetica] ;
0 [label="flavanoids <= 2.15\nentropy = 1.575\nsamples = 133\nvalue = [47, 49, 37]\nclass = class_1", fillcolor="#fafefc"] ;
1 [label="color_intensity <= 3.9\nentropy = 0.996\nsamples = 69\nvalue = [0, 32, 37]\nclass = class_2", fillcolor="#eee4fb"] ;
0 -> 1 [labeldistance=2.5, labelangle=45, headlabel="True"] ;
3 [label="entropy = 0.0\nsamples = 29\nvalue = [0, 29, 0]\nclass = class_1", fillcolor="#39e581"] ;
1 -> 3 ;
4 [label="flavanoids <= 1.4\nentropy = 0.384\nsamples = 40\nvalue = [0, 3, 37]\nclass = class_2", fillcolor="#8b49e7"] ;
1 -> 4 ;
7 [label="entropy = 0.0\nsamples = 36\nvalue = [0, 0, 36]\nclass = class_2", fillcolor="#8139e5"] ;
4 -> 7 ;
8 [label="hue <= 0.715\nentropy = 0.811\nsamples = 4\nvalue = [0, 3, 1]\nclass = class_1", fillcolor="#7beeab"] ;
4 -> 8 ;
11 [label="entropy = 0.0\nsamples = 1\nvalue = [0, 0, 1]\nclass = class_2", fillcolor="#8139e5"] ;
8 -> 11 ;
12 [label="entropy = 0.0\nsamples = 3\nvalue = [0, 3, 0]\nclass = class_1", fillcolor="#39e581"] ;
8 -> 12 ;
2 [label="proline <= 679.0\nentropy = 0.835\nsamples = 64\nvalue = [47, 17, 0]\nclass = class_0", fillcolor="#eeaf81"] ;
0 -> 2 [labeldistance=2.5, labelangle=-45, headlabel="False"] ;
5 [label="entropy = 0.0\nsamples = 15\nvalue = [0, 15, 0]\nclass = class_1", fillcolor="#39e581"] ;
2 -> 5 ;
6 [label="color_intensity <= 3.435\nentropy = 0.246\nsamples = 49\nvalue = [47, 2, 0]\nclass = class_0", fillcolor="#e68641"] ;
2 -> 6 ;
9 [label="entropy = 0.0\nsamples = 2\nvalue = [0, 2, 0]\nclass = class_1", fillcolor="#39e581"] ;
6 -> 9 ;
10 [label="entropy = 0.0\nsamples = 47\nvalue = [47, 0, 0]\nclass = class_0", fillcolor="#e58139"] ;
6 -> 10 ;
}